<?xml version="1.0" encoding="UTF-8"?>
<smile version="1.0" id="Unnamed" numsamples="10000" discsamples="10000">
	<nodes>
		<cpt id="eruptions">
			<state id="no" />
			<state id="yes" />
			<probabilities>0.9601242236024845 0.03987577639751553</probabilities>
		</cpt>
		<cpt id="Eqr">
			<state id="state_0" />
			<state id="state_1" />
			<state id="state_2" />
			<state id="state_3" />
			<state id="state_4" />
			<parents>eruptions</parents>
			<probabilities>0.1933247089262613 0.01065976714100906 0.5953945666235446 0.1495989650711514 0.05102199223803364 0.09440993788819875 0.01366459627329192 0.7031055900621118 0.1813664596273292 0.007453416149068322</probabilities>
		</cpt>
		<cpt id="CO2">
			<state id="state_0" />
			<state id="state_1" />
			<state id="state_2" />
			<state id="state_3" />
			<state id="state_4" />
			<parents>eruptions Eqr</parents>
			<probabilities>0.00296676569585449 0.1697531123930202 0.5453059976522431 0.1925874398512832 0.08938668440759895 0.1 0.1714285714285714 0.6238095238095237 0.1 0.004761904761904762 0.07219808861859252 0.1642919200695048 0.5956559513466551 0.1191138140747176 0.04874022589052997 0.04697754749568221 0.03661485319516408 0.7481865284974093 0.1436960276338515 0.02452504317789292 0.2383838383838384 0.04646464646464647 0.6373737373737375 0.04141414141414142 0.03636363636363637 0.0125 0.7625000000000002 0.1375 0.07500000000000001 0.0125 0.06666666666666665 0.06666666666666665 0.7333333333333333 0.06666666666666665 0.06666666666666665 0.001754385964912281 0.06315789473684211 0.5631578947368421 0.3701754385964912 0.001754385964912281 0.006666666666666668 0.006666666666666668 0.4733333333333334 0.5066666666666667 0.006666666666666668 0.1 0.1 0.1 0.6000000000000001 0.1</probabilities>
		</cpt>
		<cpt id="RSAM">
			<state id="state_0" />
			<state id="state_1" />
			<state id="state_2" />
			<state id="state_3" />
			<state id="state_4" />
			<parents>eruptions Eqr CO2</parents>
			<probabilities>0.06624401350926547 0.06816114345550969 0.4018867484703665 0.3974640810555928 0.06624401350926547 0.04069643239070456 0.1073702081747549 0.6609731766781575 0.1659162243621032 0.02504395839427973 0.04208580311072175 0.1785557056987735 0.6413562065716266 0.1277255187430044 0.01027676587587392 0.04970473831863293 0.1090631952650871 0.5830435645944922 0.07731848182898456 0.1808700199928032 0.002955902081997975 0.4330813705386208 0.5580509232153853 0.002955902081997975 0.002955902081997975 0.2399999999999999 0.03999999999999999 0.03999999999999999 0.6399999999999999 0.03999999999999999 0.025 0.025 0.775 0.15 0.025 0.1925925925925926 0.2666666666666667 0.4518518518518519 0.04444444444444445 0.04444444444444445 0.03999999999999999 0.03999999999999999 0.8399999999999999 0.03999999999999999 0.03999999999999999 0.2 0.2 0.2 0.2 0.2 0.1688622754491018 0.1149700598802395 0.3904191616766468 0.3005988023952096 0.0251497005988024 0.03746701846965699 0.04802110817941953 0.7076517150395779 0.2010554089709763 0.005804749340369395 0.05626822157434402 0.1962099125364431 0.5686588921282798 0.1415451895043731 0.03731778425655976 0.01890909090909091 0.1498181818181818 0.5389090909090909 0.1461818181818182 0.1461818181818182 0.001769911504424779 0.1699115044247787 0.807079646017699 0.01946902654867256 0.001769911504424779 0.15 0.04285714285714286 0.7571428571428572 0.04285714285714286 0.007142857142857144 0.009090909090909092 0.05454545454545456 0.5545454545454546 0.3272727272727273 0.05454545454545456 0.06958525345622121 0.1410138248847927 0.6709677419354839 0.07188940092165899 0.04654377880184332 0.02619047619047619 0.09761904761904759 0.5380952380952381 0.1809523809523809 0.1571428571428571 0.01333333333333334 0.01333333333333334 0.8800000000000001 0.08000000000000002 0.01333333333333334 0.08749999999999999 0.1916666666666667 0.5666666666666667 0.1291666666666667 0.025 0.02 0.02 0.8200000000000001 0.12 0.02 0.02519685039370079 0.1275590551181102 0.6551181102362205 0.1275590551181102 0.06456692913385827 0.02222222222222222 0.02222222222222222 0.3555555555555556 0.4666666666666667 0.1333333333333333 0.025 0.025 0.65 0.025 0.275 0.2 0.2 0.2 0.2 0.2 0.01538461538461539 0.01538461538461539 0.2461538461538462 0.7076923076923077 0.01538461538461539 0.06666666666666667 0.06666666666666667 0.4 0.4 0.06666666666666667 0.1 0.1 0.6000000000000001 0.1 0.1 0.2 0.2 0.2 0.2 0.2 0.2 0.2 0.2 0.2 0.2 0.2 0.2 0.2 0.2 0.2 0.06666666666666665 0.06666666666666665 0.06666666666666665 0.7333333333333333 0.06666666666666665 0.2 0.2 0.2 0.2 0.2 0.2 0.2 0.2 0.2 0.2 0.2 0.2 0.2 0.2 0.2 0.025 0.025 0.025 0.9 0.025 0.003076923076923077 0.003076923076923077 0.3876923076923077 0.4953846153846155 0.1107692307692308 0.004651162790697674 0.07441860465116279 0.5395348837209302 0.2372093023255814 0.1441860465116279 0.2 0.2 0.2 0.2 0.2 0.2 0.2 0.2 0.2 0.2 0.2 0.2 0.2 0.2 0.2 0.01333333333333334 0.01333333333333334 0.68 0.2133333333333334 0.08000000000000002 0.0125 0.0125 0.0125 0.325 0.6375 0.2 0.2 0.2 0.2 0.2 0.2 0.2 0.2 0.2 0.2 0.2 0.2 0.2 0.2 0.2 0.2 0.2 0.2 0.2 0.2 0.1 0.1 0.1 0.1 0.6 0.2 0.2 0.2 0.2 0.2</probabilities>
		</cpt>
		<cpt id="SO2">
			<state id="state_0" />
			<state id="state_1" />
			<state id="state_2" />
			<state id="state_3" />
			<state id="state_4" />
			<parents>eruptions Eqr CO2 RSAM</parents>
			<probabilities>0.2 0.2 0.2 0.2 0.2 0.2 0.2 0.2 0.2 0.2 0.1000000301834532 0.1000000301834532 0.5999998792661871 0.1000000301834532 0.1000000301834532 0.1 0.1 0.6000000000000001 0.1 0.1 0.2 0.2 0.2 0.2 0.2 0.03333333333333333 0.03333333333333333 0.8666666666666665 0.03333333333333333 0.03333333333333333 0.01428630102496158 0.01428630102496158 0.9428547959001536 0.01428630102496158 0.01428630102496158 0.002380962760377704 0.538095220337667 0.4190476075427139 0.03809524659886365 0.002380962760377704 0.009090909090909092 0.1454545454545455 0.2818181818181819 0.5545454545454546 0.009090909090909092 0.05 0.55 0.05 0.05 0.3 0.1222222222222223 0.1222222222222223 0.6777777777777779 0.06666666666666668 0.01111111111111111 0.2281689937753975 0.2704224844384939 0.2985914782138914 0.1577465093369037 0.04507053423531343 0.05482625737920389 0.1629343635861797 0.5760617694485515 0.1976833977241362 0.008494211861928553 0.003773584905660377 0.02264150943396226 0.4943396226415094 0.4754716981132075 0.003773584905660377 0.03999999999999999 0.03999999999999999 0.2399999999999999 0.6399999999999999 0.03999999999999999 0.025 0.025 0.9 0.025 0.025 0.0125005304213213 0.0125005304213213 0.9499978783147146 0.0125005304213213 0.0125005304213213 0.002380962783307687 0.002380962783307687 0.9785713875886551 0.002380962783307687 0.01428572406142168 0.01666666666666667 0.01666666666666667 0.8500000000000001 0.1 0.01666666666666667 0.007407407407407409 0.007407407407407409 0.9333333333333335 0.04444444444444445 0.007407407407407409 0.2 0.2 0.2 0.2 0.2 0.0068968674560285 0.0068968674560285 0.972412530175886 0.0068968674560285 0.0068968674560285 0.03157896595656619 0.005263179387279657 0.9526314958815949 0.005263179387279657 0.005263179387279657 0.2 0.2 0.2 0.2 0.2 0.2 0.2 0.2 0.2 0.2 0.1 0.1 0.6000000000000001 0.1 0.1 0.2 0.2 0.2 0.2 0.2 0.2 0.2 0.2 0.2 0.2 0.05 0.05 0.8 0.05 0.05 0.2 0.2 0.2 0.2 0.2 0.2 0.2 0.2 0.2 0.2 0.2 0.2 0.2 0.2 0.2 0.02857142857142857 0.02857142857142857 0.8857142857142857 0.02857142857142857 0.02857142857142857 0.1 0.1 0.1 0.6000000000000001 0.1 0.2 0.2 0.2 0.2 0.2 0.03333333333333333 0.03333333333333333 0.6999999999999998 0.2 0.03333333333333333 0.15 0.65 0.15 0.025 0.025 0.1692307692307692 0.4769230769230769 0.3230769230769231 0.01538461538461539 0.01538461538461539 0.1 0.1 0.6000000000000001 0.1 0.1 0.1 0.1 0.1 0.6000000000000001 0.1 0.2 0.2 0.2 0.2 0.2 0.2 0.2 0.2 0.2 0.2 0.03999999999999999 0.03999999999999999 0.2399999999999999 0.6399999999999999 0.03999999999999999 0.2 0.2 0.2 0.2 0.2 0.2 0.2 0.2 0.2 0.2 0.2 0.2 0.2 0.2 0.2 0.2 0.2 0.2 0.2 0.2 0.2 0.2 0.2 0.2 0.2 0.2 0.2 0.2 0.2 0.2 0.2 0.2 0.2 0.2 0.2 0.006896551724137933 0.1793103448275863 0.8000000000000002 0.006896551724137933 0.006896551724137933 0.01 0.5600000000000001 0.41 0.01 0.01 0.00303030303030303 0.7 0.2909090909090908 0.00303030303030303 0.00303030303030303 0.003921568627450979 0.180392156862745 0.8078431372549019 0.003921568627450979 0.003921568627450979 0.03999999999999999 0.03999999999999999 0.8399999999999999 0.03999999999999999 0.03999999999999999 0.01333333333333334 0.01333333333333334 0.9466666666666668 0.01333333333333334 0.01333333333333334 0.01052631578947369 0.01052631578947369 0.9578947368421055 0.01052631578947369 0.01052631578947369 0.0007434944237918218 0.2014869888475837 0.6475836431226767 0.1494423791821562 0.0007434944237918218 0.002597402597402597 0.01558441558441558 0.2493506493506493 0.7298701298701298 0.002597402597402597 0.06666666666666667 0.06666666666666667 0.4 0.06666666666666667 0.4 0.0923076923076923 0.0282051282051282 0.7717948717948717 0.1051282051282051 0.002564102564102564 0.1970370370370371 0.2118518518518519 0.4785185185185186 0.06740740740740742 0.04518518518518519 0.08220230473751601 0.1590268886043534 0.5892445582586427 0.1385403329065301 0.03098591549295774 0.01128205128205128 0.04205128205128206 0.8010256410256411 0.1394871794871795 0.006153846153846155 0.003846153846153846 0.0423076923076923 0.6192307692307693 0.2923076923076923 0.0423076923076923 0.03333333333333333 0.03333333333333333 0.6999999999999998 0.2 0.03333333333333333 0.004761904761904762 0.6476190476190475 0.219047619047619 0.1238095238095238 0.004761904761904762 0.001342281879194631 0.09530201342281878 0.3973154362416108 0.1959731543624161 0.3100671140939598 0.004878048780487805 0.004878048780487805 0.7853658536585366 0.1268292682926829 0.07804878048780488 0.004878048780487806 0.004878048780487806 0.2 0.7121951219512195 0.07804878048780489 0.2 0.2 0.2 0.2 0.2 0.11 0.5600000000000001 0.2600000000000001 0.01 0.06000000000000001 0.5347826086956521 0.1652173913043478 0.2739130434782608 0.00217391304347826 0.02391304347826087 0.4 0.4 0.06666666666666667 0.06666666666666667 0.06666666666666667 0.2 0.2 0.2 0.2 0.2 0.03999999999999999 0.8399999999999999 0.03999999999999999 0.03999999999999999 0.03999999999999999 0.1 0.6000000000000001 0.1 0.1 0.1 0.009090909090909092 0.8272727272727274 0.1454545454545455 0.009090909090909092 0.009090909090909092 0.1 0.6000000000000001 0.1 0.1 0.1 0.2 0.2 0.2 0.2 0.2 0.2 0.2 0.2 0.2 0.2 0.1 0.6000000000000001 0.1 0.1 0.1 0.01538461538461539 0.3230769230769231 0.6307692307692307 0.01538461538461539 0.01538461538461539 0.025 0.025 0.275 0.65 0.025 0.1 0.1 0.1 0.6000000000000001 0.1 0.006451612903225808 0.03870967741935485 0.8451612903225808 0.03870967741935485 0.07096774193548389 0.003225806451612903 0.1 0.6645161290322581 0.06774193548387097 0.164516129032258 0.0006849315068493153 0.03835616438356165 0.8397260273972604 0.07602739726027398 0.0452054794520548 0.006250000000000002 0.1 0.6000000000000001 0.2250000000000001 0.06875000000000002 0.009523809523809526 0.2476190476190477 0.2952380952380953 0.4380952380952381 0.009523809523809526 0.06666666666666665 0.06666666666666665 0.7333333333333333 0.06666666666666665 0.06666666666666665 0.02222222222222222 0.02222222222222222 0.6888888888888889 0.2444444444444445 0.02222222222222222 0.004347826086956521 0.004347826086956521 0.7652173913043477 0.2217391304347825 0.004347826086956521 0.0125 0.0125 0.3250000000000001 0.6375000000000001 0.0125 0.01428571428571429 0.01428571428571429 0.2285714285714286 0.7285714285714286 0.01428571428571429 0.2 0.2 0.2 0.2 0.2 0.2 0.2 0.2 0.2 0.2 0.5142857142857142 0.01428571428571429 0.2285714285714286 0.01428571428571429 0.2285714285714286 0.6000000000000001 0.1 0.1 0.1 0.1 0.2 0.2 0.2 0.2 0.2 0.03999999999999999 0.8399999999999999 0.03999999999999999 0.03999999999999999 0.03999999999999999 0.02 0.12 0.8200000000000001 0.02 0.02 0.007142857142857144 0.15 0.8285714285714286 0.007142857142857144 0.007142857142857144 0.02857142857142857 0.3142857142857143 0.6 0.02857142857142857 0.02857142857142857 0.1 0.1 0.6000000000000001 0.1 0.1 0.2 0.2 0.2 0.2 0.2 0.2 0.2 0.2 0.2 0.2 0.02222222222222223 0.02222222222222223 0.9111111111111112 0.02222222222222223 0.02222222222222223 0.1 0.1 0.1 0.6000000000000001 0.1 0.2 0.2 0.2 0.2 0.2 0.05 0.05 0.8 0.05 0.05 0.01176470588235294 0.07058823529411765 0.6588235294117647 0.1294117647058824 0.1294117647058824 0.002380952380952381 0.02619047619047619 0.7047619047619047 0.1452380952380952 0.1214285714285714 0.01176470588235294 0.01176470588235294 0.3647058823529412 0.3058823529411765 0.3058823529411765 0.02222222222222222 0.02222222222222222 0.1333333333333333 0.4666666666666667 0.3555555555555556 0.2 0.2 0.2 0.2 0.2 0.2 0.2 0.2 0.2 0.2 0.05 0.05 0.05 0.05 0.8 0.03999999999999999 0.03999999999999999 0.8399999999999999 0.03999999999999999 0.03999999999999999 0.1 0.1 0.6000000000000001 0.1 0.1 0.2 0.2 0.2 0.2 0.2 0.2 0.2 0.2 0.2 0.2 0.03333333333333333 0.03333333333333333 0.8666666666666665 0.03333333333333333 0.03333333333333333 0.2 0.2 0.2 0.2 0.2 0.06666666666666665 0.06666666666666665 0.7333333333333333 0.06666666666666665 0.06666666666666665 0.2 0.2 0.2 0.2 0.2 0.2 0.2 0.2 0.2 0.2 0.2 0.2 0.2 0.2 0.2 0.2 0.2 0.2 0.2 0.2 0.2 0.2 0.2 0.2 0.2 0.2 0.2 0.2 0.2 0.2 0.2 0.2 0.2 0.2 0.2 0.05 0.05 0.05 0.8 0.05 0.02 0.02 0.02 0.9200000000000002 0.02 0.2 0.2 0.2 0.2 0.2 0.2 0.2 0.2 0.2 0.2 0.2 0.2 0.2 0.2 0.2 0.1 0.1 0.1 0.1 0.6 0.1 0.1 0.1 0.1 0.6 0.2 0.2 0.2 0.2 0.2 0.2 0.2 0.2 0.2 0.2 0.2 0.2 0.2 0.2 0.2 0.1 0.1 0.6000000000000001 0.1 0.1 0.2 0.2 0.2 0.2 0.2 0.2 0.2 0.2 0.2 0.2 0.2 0.2 0.2 0.2 0.2 0.2 0.2 0.2 0.2 0.2 0.2 0.2 0.2 0.2 0.2 0.2 0.2 0.2 0.2 0.2 0.2 0.2 0.2 0.2 0.2 0.2 0.2 0.2 0.2 0.2 0.2 0.2 0.2 0.2 0.2 0.2 0.2 0.2 0.2 0.2 0.2 0.2 0.2 0.2 0.2 0.2 0.2 0.2 0.2 0.2 0.2 0.2 0.2 0.2 0.2 0.2 0.2 0.2 0.2 0.2 0.2 0.2 0.2 0.2 0.2 0.2 0.2 0.2 0.2 0.2 0.2 0.2 0.2 0.2 0.2 0.2 0.2 0.2 0.2 0.2 0.2 0.2 0.2 0.2 0.2 0.2 0.2 0.2 0.2 0.2 0.06666666666666667 0.06666666666666667 0.06666666666666667 0.06666666666666667 0.7333333333333334 0.2 0.2 0.2 0.2 0.2 0.2 0.2 0.2 0.2 0.2 0.2 0.2 0.2 0.2 0.2 0.2 0.2 0.2 0.2 0.2 0.2 0.2 0.2 0.2 0.2 0.2 0.2 0.2 0.2 0.2 0.2 0.2 0.2 0.2 0.2 0.2 0.2 0.2 0.2 0.2 0.2 0.2 0.2 0.2 0.2 0.2 0.2 0.2 0.2 0.2 0.2 0.2 0.2 0.2 0.2 0.2 0.2 0.2 0.2 0.2 0.2 0.2 0.2 0.2 0.2 0.2 0.2 0.2 0.2 0.2 0.2 0.2 0.2 0.2 0.2 0.2 0.2 0.2 0.2 0.2 0.2 0.2 0.2 0.2 0.2 0.2 0.2 0.2 0.2 0.2 0.2 0.2 0.2 0.2 0.2 0.025 0.025 0.025 0.9 0.025 0.2 0.2 0.2 0.2 0.2 0.2 0.2 0.2 0.2 0.2 0.2 0.2 0.2 0.2 0.2 0.007692307692307693 0.3923076923076923 0.007692307692307693 0.007692307692307693 0.5846153846153846 0.006060606060606061 0.1575757575757576 0.006060606060606061 0.5212121212121212 0.3090909090909091 0.025 0.15 0.025 0.525 0.275 0.2 0.2 0.2 0.2 0.2 0.05 0.05 0.8 0.05 0.05 0.008333333333333335 0.008333333333333335 0.9666666666666668 0.008333333333333335 0.008333333333333335 0.01818181818181818 0.01818181818181818 0.6545454545454545 0.01818181818181818 0.290909090909091 0.02857142857142857 0.02857142857142857 0.8857142857142857 0.02857142857142857 0.02857142857142857 0.2 0.2 0.2 0.2 0.2 0.2 0.2 0.2 0.2 0.2 0.2 0.2 0.2 0.2 0.2 0.2 0.2 0.2 0.2 0.2 0.2 0.2 0.2 0.2 0.2 0.2 0.2 0.2 0.2 0.2 0.2 0.2 0.2 0.2 0.2 0.2 0.2 0.2 0.2 0.2 0.2 0.2 0.2 0.2 0.2 0.2 0.2 0.2 0.2 0.2 0.2 0.2 0.2 0.2 0.2 0.2 0.2 0.2 0.2 0.2 0.2 0.2 0.2 0.2 0.2 0.2 0.2 0.2 0.2 0.2 0.2 0.2 0.2 0.2 0.2 0.2 0.2 0.2 0.2 0.2 0.2 0.2 0.2 0.2 0.2 0.01818181818181818 0.9272727272727274 0.01818181818181818 0.01818181818181818 0.01818181818181818 0.05 0.55 0.05 0.05 0.3 0.1 0.1 0.1 0.1 0.6 0.2 0.2 0.2 0.2 0.2 0.2 0.2 0.2 0.2 0.2 0.2 0.2 0.2 0.2 0.2 0.03333333333333333 0.03333333333333333 0.6999999999999998 0.2 0.03333333333333333 0.01818181818181818 0.01818181818181818 0.6545454545454545 0.290909090909091 0.01818181818181818 0.2 0.2 0.2 0.2 0.2 0.2 0.2 0.2 0.2 0.2 0.2 0.2 0.2 0.2 0.2 0.2 0.2 0.2 0.2 0.2 0.2 0.2 0.2 0.2 0.2 0.2 0.2 0.2 0.2 0.2 0.2 0.2 0.2 0.2 0.2 0.2 0.2 0.2 0.2 0.2 0.2 0.2 0.2 0.2 0.2 0.2 0.2 0.2 0.2 0.2 0.2 0.2 0.2 0.2 0.2 0.2 0.2 0.2 0.2 0.2 0.2 0.2 0.2 0.2 0.2 0.2 0.2 0.2 0.2 0.2 0.2 0.2 0.2 0.2 0.2 0.2 0.2 0.2 0.2 0.2 0.2 0.2 0.2 0.2 0.2 0.2 0.2 0.2 0.2 0.2 0.2 0.2 0.2 0.2 0.2 0.2 0.2 0.2 0.2 0.2 0.2 0.2 0.2 0.2 0.2 0.2 0.2 0.2 0.2 0.2 0.2 0.2 0.2 0.2 0.2 0.2 0.2 0.2 0.2 0.2 0.1 0.1 0.6000000000000001 0.1 0.1 0.2 0.2 0.2 0.2 0.2 0.2 0.2 0.2 0.2 0.2 0.2 0.2 0.2 0.2 0.2 0.2 0.2 0.2 0.2 0.2 0.2 0.2 0.2 0.2 0.2</probabilities>
		</cpt>
		<cpt id="H2S">
			<state id="state_0" />
			<state id="state_1" />
			<state id="state_2" />
			<state id="state_3" />
			<state id="state_4" />
			<parents>eruptions Eqr CO2 RSAM SO2</parents>
			<probabilities>0.2 0.2 0.2 0.2 0.2 0.2 0.2 0.2 0.2 0.2 0.2 0.2 0.2 0.2 0.2 0.2 0.2 0.2 0.2 0.2 0.2 0.2 0.2 0.2 0.2 0.2 0.2 0.2 0.2 0.2 0.2 0.2 0.2 0.2 0.2 0.2 0.2 0.2 0.2 0.2 0.2 0.2 0.2 0.2 0.2 0.2 0.2 0.2 0.2 0.2 0.2 0.2 0.2 0.2 0.2 0.2 0.2 0.2 0.2 0.2 0.1000000014250334 0.1000000014250334 0.5999999942998663 0.1000000014250334 0.1000000014250334 0.2 0.2 0.2 0.2 0.2 0.2 0.2 0.2 0.2 0.2 0.2 0.2 0.2 0.2 0.2 0.2 0.2 0.2 0.2 0.2 0.1 0.1 0.6000000000000001 0.1 0.1 0.2 0.2 0.2 0.2 0.2 0.2 0.2 0.2 0.2 0.2 0.2 0.2 0.2 0.2 0.2 0.2 0.2 0.2 0.2 0.2 0.2 0.2 0.2 0.2 0.2 0.2 0.2 0.2 0.2 0.2 0.2 0.2 0.2 0.2 0.2 0.2 0.2 0.2 0.2 0.2 0.2 0.2 0.2 0.2 0.2 0.03333333333333333 0.8666666666666665 0.03333333333333333 0.03333333333333333 0.03333333333333333 0.2 0.2 0.2 0.2 0.2 0.2 0.2 0.2 0.2 0.2 0.2 0.2 0.2 0.2 0.2 0.2 0.2 0.2 0.2 0.2 0.01428581333091407 0.9428567466763436 0.01428581333091407 0.01428581333091407 0.01428581333091407 0.2 0.2 0.2 0.2 0.2 0.2 0.2 0.2 0.2 0.2 0.2 0.2 0.2 0.2 0.2 0.04782608972829323 0.9391304213197187 0.004347829650662724 0.004347829650662724 0.004347829650662724 0.005555560015907953 0.7833333199522762 0.2 0.005555560015907953 0.005555560015907953 0.0500000173754885 0.0500000173754885 0.7999999304980461 0.0500000173754885 0.0500000173754885 0.2 0.2 0.2 0.2 0.2 0.2 0.2 0.2 0.2 0.2 0.05 0.8 0.05 0.05 0.05 0.02857142857142857 0.6 0.3142857142857143 0.02857142857142857 0.02857142857142857 0.01538461538461539 0.01538461538461539 0.9384615384615385 0.01538461538461539 0.01538461538461539 0.2 0.2 0.2 0.2 0.2 0.2 0.2 0.2 0.2 0.2 0.06666666666666665 0.7333333333333333 0.06666666666666665 0.06666666666666665 0.06666666666666665 0.2 0.2 0.2 0.2 0.2 0.2 0.2 0.2 0.2 0.2 0.1 0.1 0.6000000000000001 0.1 0.1 0.06666666666666665 0.06666666666666665 0.7333333333333333 0.06666666666666665 0.06666666666666665 0.06666666666666667 0.06666666666666667 0.06666666666666667 0.06666666666666667 0.7333333333333334 0.01538461538461539 0.01538461538461539 0.7076923076923077 0.09230769230769231 0.1692307692307692 0.1 0.1 0.1 0.6000000000000001 0.1 0.2 0.2 0.2 0.2 0.2 0.01176480455467533 0.01176480455467533 0.9529407817812987 0.01176480455467533 0.01176480455467533 0.01000008647039176 0.0600000637150255 0.559999836161363 0.01000008647039176 0.359999927182828 0.009090988939039894 0.009090988939039894 0.5999998326991545 0.009090988939039894 0.3727272004837258 0.01666679493947207 0.1833333449944975 0.01666679493947207 0.7666662701870863 0.01666679493947207 0.05000020349709798 0.05000020349709798 0.299999864335268 0.05000020349709798 0.5499995251734381 0.0133333429835145 0.0133333429835145 0.946666628065942 0.0133333429835145 0.0133333429835145 0.004651166706055584 0.2604651150671733 0.5860465038904139 0.004651166706055584 0.1441860476303016 0.1346666670572084 0.227999999832625 0.2746666662203333 0.3546666657421189 0.008000001147714502 0.003846157128701912 0.5999999933061764 0.3115384596719146 0.08076923276450508 0.003846157128701912 0.06666668333365469 0.06666668333365469 0.3999999749995179 0.06666668333365469 0.3999999749995179 0.2 0.2 0.2 0.2 0.2 0.1 0.6000000000000001 0.1 0.1 0.1 0.007407407407407409 0.0814814814814815 0.562962962962963 0.3407407407407407 0.007407407407407409 0.007692307692307693 0.1615384615384615 0.7769230769230769 0.04615384615384616 0.007692307692307693 0.2 0.2 0.2 0.2 0.2 0.2 0.2 0.2 0.2 0.2 0.2 0.2 0.2 0.2 0.2 0.1 0.1 0.6000000000000001 0.1 0.1 0.05 0.3 0.3 0.3 0.05 0.2 0.2 0.2 0.2 0.2 0.2 0.2 0.2 0.2 0.2 0.2 0.2 0.2 0.2 0.2 0.025 0.15 0.775 0.025 0.025 0.2 0.2 0.2 0.2 0.2 0.2 0.2 0.2 0.2 0.2 0.2 0.2 0.2 0.2 0.2 0.2 0.2 0.2 0.2 0.2 0.0125000915037305 0.824999694987565 0.07500006100248699 0.07500006100248699 0.0125000915037305 0.2 0.2 0.2 0.2 0.2 0.2 0.2 0.2 0.2 0.2 0.2 0.2 0.2 0.2 0.2 0.2 0.2 0.2 0.2 0.2 0.00240964060009473 0.3879518052828367 0.0265060258927661 0.5807228876242077 0.00240964060009473 0.2 0.2 0.2 0.2 0.2 0.5999999578758408 0.1000000105310398 0.1000000105310398 0.1000000105310398 0.1000000105310398 0.2 0.2 0.2 0.2 0.2 0.2 0.2 0.2 0.2 0.2 0.01818181818181818 0.01818181818181818 0.01818181818181818 0.9272727272727274 0.01818181818181818 0.1 0.1 0.1 0.6000000000000001 0.1 0.2 0.2 0.2 0.2 0.2 0.2 0.2 0.2 0.2 0.2 0.2 0.2 0.2 0.2 0.2 0.007692307692307693 0.04615384615384616 0.007692307692307693 0.9307692307692308 0.007692307692307693 0.1 0.1 0.1 0.6000000000000001 0.1 0.2 0.2 0.2 0.2 0.2 0.2 0.2 0.2 0.2 0.2 0.2 0.2 0.2 0.2 0.2 0.2 0.2 0.2 0.2 0.2 0.2 0.2 0.2 0.2 0.2 0.2 0.2 0.2 0.2 0.2 0.2 0.2 0.2 0.2 0.2 0.2 0.2 0.2 0.2 0.2 0.006896609973535721 0.006896609973535721 0.9724135601058572 0.006896609973535721 0.006896609973535721 0.2 0.2 0.2 0.2 0.2 0.2 0.2 0.2 0.2 0.2 0.1000000099854578 0.1000000099854578 0.599999960058169 0.1000000099854578 0.1000000099854578 0.2 0.2 0.2 0.2 0.2 0.005405409541421094 0.005405409541421094 0.9783783618343157 0.005405409541421094 0.005405409541421094 0.2 0.2 0.2 0.2 0.2 0.2 0.2 0.2 0.2 0.2 0.2 0.2 0.2 0.2 0.2 0.2 0.2 0.2 0.2 0.2 0.2 0.2 0.2 0.2 0.2 0.2 0.2 0.2 0.2 0.2 0.2 0.2 0.2 0.2 0.2 0.2 0.2 0.2 0.2 0.2 0.2 0.2 0.2 0.2 0.2 0.2 0.2 0.2 0.2 0.2 0.2 0.2 0.2 0.2 0.2 0.2 0.2 0.2 0.2 0.2 0.2 0.2 0.2 0.2 0.2 0.2 0.2 0.2 0.2 0.2 0.1 0.1 0.6000000000000001 0.1 0.1 0.2 0.2 0.2 0.2 0.2 0.2 0.2 0.2 0.2 0.2 0.2 0.2 0.2 0.2 0.2 0.2 0.2 0.2 0.2 0.2 0.2 0.2 0.2 0.2 0.2 0.2 0.2 0.2 0.2 0.2 0.2 0.2 0.2 0.2 0.2 0.2 0.2 0.2 0.2 0.2 0.2 0.2 0.2 0.2 0.2 0.2 0.2 0.2 0.2 0.2 0.2 0.2 0.2 0.2 0.2 0.2 0.2 0.2 0.2 0.2 0.2 0.2 0.2 0.2 0.2 0.2 0.2 0.2 0.2 0.2 0.05 0.05 0.8 0.05 0.05 0.2 0.2 0.2 0.2 0.2 0.2 0.2 0.2 0.2 0.2 0.2 0.2 0.2 0.2 0.2 0.2 0.2 0.2 0.2 0.2 0.2 0.2 0.2 0.2 0.2 0.2 0.2 0.2 0.2 0.2 0.2 0.2 0.2 0.2 0.2 0.2 0.2 0.2 0.2 0.2 0.2 0.2 0.2 0.2 0.2 0.2 0.2 0.2 0.2 0.2 0.2 0.2 0.2 0.2 0.2 0.2 0.2 0.2 0.2 0.2 0.2 0.2 0.2 0.2 0.2 0.2 0.2 0.2 0.2 0.2 0.2 0.2 0.2 0.2 0.2 0.2 0.2 0.2 0.2 0.2 0.2 0.2 0.2 0.2 0.2 0.2 0.2 0.2 0.2 0.2 0.2 0.2 0.2 0.2 0.2 0.02857142857142857 0.3142857142857143 0.6 0.02857142857142857 0.02857142857142857 0.2 0.2 0.2 0.2 0.2 0.2 0.2 0.2 0.2 0.2 0.2 0.2 0.2 0.2 0.2 0.2 0.2 0.2 0.2 0.2 0.2 0.2 0.2 0.2 0.2 0.1 0.1 0.6000000000000001 0.1 0.1 0.2 0.2 0.2 0.2 0.2 0.2 0.2 0.2 0.2 0.2 0.2 0.2 0.2 0.2 0.2 0.2 0.2 0.2 0.2 0.2 0.2 0.2 0.2 0.2 0.2 0.2 0.2 0.2 0.2 0.2 0.2 0.2 0.2 0.2 0.2 0.2 0.2 0.2 0.2 0.2 0.04000000000000001 0.04000000000000001 0.24 0.04000000000000001 0.6400000000000001 0.1 0.1 0.1 0.6000000000000001 0.1 0.2 0.2 0.2 0.2 0.2 0.1 0.1 0.6000000000000001 0.1 0.1 0.03333333333333333 0.03333333333333333 0.8666666666666665 0.03333333333333333 0.03333333333333333 0.1 0.1 0.1 0.1 0.6 0.2 0.2 0.2 0.2 0.2 0.2 0.2 0.2 0.2 0.2 0.06666666666666665 0.06666666666666665 0.7333333333333333 0.06666666666666665 0.06666666666666665 0.02857142857142857 0.1714285714285714 0.7428571428571429 0.02857142857142857 0.02857142857142857 0.03999999999999999 0.2399999999999999 0.6399999999999999 0.03999999999999999 0.03999999999999999 0.2 0.2 0.2 0.2 0.2 0.2 0.2 0.2 0.2 0.2 0.2 0.2 0.2 0.2 0.2 0.2 0.2 0.2 0.2 0.2 0.1 0.1 0.6000000000000001 0.1 0.1 0.2 0.2 0.2 0.2 0.2 0.2 0.2 0.2 0.2 0.2 0.2 0.2 0.2 0.2 0.2 0.2 0.2 0.2 0.2 0.2 0.2 0.2 0.2 0.2 0.2 0.1 0.1 0.1 0.6000000000000001 0.1 0.2 0.2 0.2 0.2 0.2 0.2 0.2 0.2 0.2 0.2 0.2 0.2 0.2 0.2 0.2 0.2 0.2 0.2 0.2 0.2 0.2 0.2 0.2 0.2 0.2 0.2 0.2 0.2 0.2 0.2 0.2 0.2 0.2 0.2 0.2 0.2 0.2 0.2 0.2 0.2 0.2 0.2 0.2 0.2 0.2 0.2 0.2 0.2 0.2 0.2 0.2 0.2 0.2 0.2 0.2 0.2 0.2 0.2 0.2 0.2 0.2 0.2 0.2 0.2 0.2 0.1 0.1 0.1 0.6000000000000001 0.1 0.05 0.05 0.05 0.8 0.05 0.2 0.2 0.2 0.2 0.2 0.2 0.2 0.2 0.2 0.2 0.2 0.2 0.2 0.2 0.2 0.2 0.2 0.2 0.2 0.2 0.2 0.2 0.2 0.2 0.2 0.2 0.2 0.2 0.2 0.2 0.2 0.2 0.2 0.2 0.2 0.2 0.2 0.2 0.2 0.2 0.2 0.2 0.2 0.2 0.2 0.2 0.2 0.2 0.2 0.2 0.2 0.2 0.2 0.2 0.2 0.2 0.2 0.2 0.2 0.2 0.2 0.2 0.2 0.2 0.2 0.2 0.2 0.2 0.2 0.2 0.2 0.2 0.2 0.2 0.2 0.2 0.2 0.2 0.2 0.2 0.2 0.2 0.2 0.2 0.2 0.2 0.2 0.2 0.2 0.2 0.2 0.2 0.2 0.2 0.2 0.2 0.2 0.2 0.2 0.2 0.2 0.2 0.2 0.2 0.2 0.2 0.2 0.2 0.2 0.2 0.2 0.2 0.2 0.2 0.2 0.2 0.2 0.2 0.2 0.2 0.2 0.2 0.2 0.2 0.2 0.2 0.2 0.2 0.2 0.2 0.2 0.2 0.2 0.2 0.2 0.2 0.2 0.2 0.2 0.2 0.2 0.2 0.2 0.2 0.2 0.2 0.2 0.2 0.2 0.2 0.2 0.2 0.2 0.2 0.2 0.2 0.2 0.2 0.2 0.2 0.2 0.2 0.2 0.2 0.2 0.2 0.2 0.2 0.2 0.2 0.2 0.2 0.2 0.2 0.2 0.2 0.2 0.2 0.2 0.2 0.2 0.2 0.2 0.2 0.2 0.03333333333333333 0.03333333333333333 0.8666666666666665 0.03333333333333333 0.03333333333333333 0.008333333333333335 0.008333333333333335 0.9666666666666668 0.008333333333333335 0.008333333333333335 0.2 0.2 0.2 0.2 0.2 0.2 0.2 0.2 0.2 0.2 0.2 0.2 0.2 0.2 0.2 0.01666666666666667 0.6 0.35 0.01666666666666667 0.01666666666666667 0.02222222222222223 0.02222222222222223 0.9111111111111112 0.02222222222222223 0.02222222222222223 0.2 0.2 0.2 0.2 0.2 0.2 0.2 0.2 0.2 0.2 0.2 0.2 0.2 0.2 0.2 0.00425531914893617 0.451063829787234 0.5361702127659574 0.00425531914893617 0.00425531914893617 0.01 0.01 0.9600000000000002 0.01 0.01 0.2 0.2 0.2 0.2 0.2 0.2 0.2 0.2 0.2 0.2 0.2 0.2 0.2 0.2 0.2 0.02 0.12 0.8200000000000001 0.02 0.02 0.004761904761904761 0.004761904761904761 0.9809523809523808 0.004761904761904761 0.004761904761904761 0.2 0.2 0.2 0.2 0.2 0.2 0.2 0.2 0.2 0.2 0.2 0.2 0.2 0.2 0.2 0.2 0.2 0.2 0.2 0.2 0.03999999999999999 0.03999999999999999 0.8399999999999999 0.03999999999999999 0.03999999999999999 0.2 0.2 0.2 0.2 0.2 0.2 0.2 0.2 0.2 0.2 0.2 0.2 0.2 0.2 0.2 0.2 0.2 0.2 0.2 0.2 0.01333333333333334 0.2133333333333334 0.7466666666666668 0.01333333333333334 0.01333333333333334 0.2 0.2 0.2 0.2 0.2 0.2 0.2 0.2 0.2 0.2 0.2 0.2 0.2 0.2 0.2 0.2 0.2 0.2 0.2 0.2 0.01052631578947369 0.06315789473684212 0.905263157894737 0.01052631578947369 0.01052631578947369 0.2 0.2 0.2 0.2 0.2 0.2 0.2 0.2 0.2 0.2 0.2 0.2 0.2 0.2 0.2 0.5854545454545454 0.4036363636363636 0.003636363636363636 0.003636363636363636 0.003636363636363636 0.001142857142857143 0.09257142857142858 0.904 0.001142857142857143 0.001142857142857143 0.004878048780487805 0.004878048780487805 0.9804878048780488 0.004878048780487805 0.004878048780487805 0.2 0.2 0.2 0.2 0.2 0.2 0.2 0.2 0.2 0.2 0.1 0.6000000000000001 0.1 0.1 0.1 0.01 0.11 0.8600000000000001 0.01 0.01 0.003508771929824561 0.003508771929824561 0.9859649122807017 0.003508771929824561 0.003508771929824561 0.2 0.2 0.2 0.2 0.2 0.2 0.2 0.2 0.2 0.2 0.2 0.2 0.2 0.2 0.2 0.1 0.1 0.6000000000000001 0.1 0.1 0.2 0.2 0.2 0.2 0.2 0.1 0.1 0.6000000000000001 0.1 0.1 0.025 0.025 0.9 0.025 0.025 0.06666666666666667 0.06666666666666667 0.4 0.06666666666666667 0.4 0.003278688524590164 0.01967213114754099 0.5934426229508197 0.08524590163934427 0.2983606557377049 0.02222222222222223 0.02222222222222223 0.02222222222222223 0.9111111111111112 0.02222222222222223 0.2 0.2 0.2 0.2 0.2 0.003703703703703704 0.003703703703703704 0.9851851851851852 0.003703703703703704 0.003703703703703704 0.193103448275862 0.1241379310344827 0.6241379310344827 0.003448275862068965 0.05517241379310344 0.02461538461538462 0.1323076923076923 0.64 0.01692307692307693 0.1861538461538462 0.3263157894736843 0.536842105263158 0.01052631578947369 0.1157894736842106 0.01052631578947369 0.01538461538461539 0.01538461538461539 0.7846153846153846 0.01538461538461539 0.1692307692307692 0.003076923076923076 0.003076923076923076 0.9876923076923075 0.003076923076923076 0.003076923076923076 0.2976 0.1216 0.5055999999999999 0.0016 0.07359999999999998 0.03947939262472885 0.1501084598698482 0.5557483731019522 0.2238611713665944 0.03080260303687635 0.1027522935779816 0.3871559633027523 0.4146788990825688 0.09357798165137612 0.001834862385321101 0.008000000000000002 0.008000000000000002 0.6480000000000001 0.008000000000000002 0.328 0.06666666666666665 0.06666666666666665 0.7333333333333333 0.06666666666666665 0.06666666666666665 0.1333333333333333 0.1333333333333333 0.5777777777777777 0.02222222222222222 0.1333333333333333 0.001273885350318471 0.06496815286624204 0.7847133757961784 0.1477707006369427 0.001273885350318471 0.007142857142857144 0.07857142857142858 0.8285714285714286 0.07857142857142858 0.007142857142857144 0.1 0.1 0.6000000000000001 0.1 0.1 0.2 0.2 0.2 0.2 0.2 0.06666666666666667 0.06666666666666667 0.4 0.06666666666666667 0.4 0.006060606060606061 0.006060606060606061 0.8242424242424242 0.1575757575757576 0.006060606060606061 0.0125 0.0125 0.2625000000000001 0.7000000000000001 0.0125 0.06666666666666667 0.06666666666666667 0.06666666666666667 0.06666666666666667 0.7333333333333334 0.2 0.2 0.2 0.2 0.2 0.2 0.2 0.2 0.2 0.2 0.03999999999999999 0.03999999999999999 0.8399999999999999 0.03999999999999999 0.03999999999999999 0.1 0.1 0.1 0.6000000000000001 0.1 0.2 0.2 0.2 0.2 0.2 0.2 0.2 0.2 0.2 0.2 0.007142857142857144 0.007142857142857144 0.9714285714285715 0.007142857142857144 0.007142857142857144 0.02 0.6200000000000001 0.3200000000000001 0.02 0.02 0.03333333333333333 0.03333333333333333 0.03333333333333333 0.8666666666666665 0.03333333333333333 0.2 0.2 0.2 0.2 0.2 0.2 0.2 0.2 0.2 0.2 0.01333333333333334 0.01333333333333334 0.9466666666666668 0.01333333333333334 0.01333333333333334 0.003333333333333334 0.37 0.2033333333333333 0.42 0.003333333333333334 0.006666666666666668 0.006666666666666668 0.006666666666666668 0.9733333333333335 0.006666666666666668 0.9829787234042552 0.004255319148936169 0.004255319148936169 0.004255319148936169 0.004255319148936169 0.2 0.2 0.2 0.2 0.2 0.2 0.2 0.2 0.2 0.2 0.006060606060606061 0.06666666666666668 0.09696969696969698 0.8242424242424242 0.006060606060606061 0.03333333333333333 0.03333333333333333 0.03333333333333333 0.8666666666666665 0.03333333333333333 0.8 0.05 0.05 0.05 0.05 0.2 0.2 0.2 0.2 0.2 0.2 0.2 0.2 0.2 0.2 0.02222222222222223 0.02222222222222223 0.02222222222222223 0.9111111111111112 0.02222222222222223 0.006666666666666668 0.006666666666666668 0.006666666666666668 0.9733333333333335 0.006666666666666668 0.8 0.05 0.05 0.05 0.05 0.2 0.2 0.2 0.2 0.2 0.2 0.2 0.2 0.2 0.2 0.2 0.2 0.2 0.2 0.2 0.2 0.2 0.2 0.2 0.2 0.2 0.2 0.2 0.2 0.2 0.06666666666666665 0.06666666666666665 0.7333333333333333 0.06666666666666665 0.06666666666666665 0.01666666666666667 0.01666666666666667 0.9333333333333333 0.01666666666666667 0.01666666666666667 0.03333333333333333 0.03333333333333333 0.8666666666666665 0.03333333333333333 0.03333333333333333 0.2 0.2 0.2 0.2 0.2 0.1 0.1 0.6000000000000001 0.1 0.1 0.003999999999999999 0.003999999999999999 0.9839999999999999 0.003999999999999999 0.003999999999999999 0.0125 0.0125 0.9500000000000002 0.0125 0.0125 0.007692307692307693 0.007692307692307693 0.9692307692307692 0.007692307692307693 0.007692307692307693 0.2 0.2 0.2 0.2 0.2 0.06666666666666665 0.06666666666666665 0.7333333333333333 0.06666666666666665 0.06666666666666665 0.1 0.1 0.6000000000000001 0.1 0.1 0.1 0.1 0.6000000000000001 0.1 0.1 0.2 0.2 0.2 0.2 0.2 0.2 0.2 0.2 0.2 0.2 0.2 0.2 0.2 0.2 0.2 0.2 0.2 0.2 0.2 0.2 0.2 0.2 0.2 0.2 0.2 0.2 0.2 0.2 0.2 0.2 0.2 0.2 0.2 0.2 0.2 0.2 0.2 0.2 0.2 0.2 0.2 0.2 0.2 0.2 0.2 0.03999999999999999 0.03999999999999999 0.8399999999999999 0.03999999999999999 0.03999999999999999 0.2 0.2 0.2 0.2 0.2 0.2 0.2 0.2 0.2 0.2 0.2 0.2 0.2 0.2 0.2 0.2 0.2 0.2 0.2 0.2 0.1 0.1 0.6000000000000001 0.1 0.1 0.2 0.2 0.2 0.2 0.2 0.2 0.2 0.2 0.2 0.2 0.2 0.2 0.2 0.2 0.2 0.2 0.2 0.2 0.2 0.2 0.01052631578947369 0.01052631578947369 0.9578947368421055 0.01052631578947369 0.01052631578947369 0.05 0.05 0.8 0.05 0.05 0.2 0.2 0.2 0.2 0.2 0.2 0.2 0.2 0.2 0.2 0.2 0.2 0.2 0.2 0.2 0.1 0.1 0.6000000000000001 0.1 0.1 0.2 0.2 0.2 0.2 0.2 0.2 0.2 0.2 0.2 0.2 0.2 0.2 0.2 0.2 0.2 0.2 0.2 0.2 0.2 0.2 0.2 0.2 0.2 0.2 0.2 0.2 0.2 0.2 0.2 0.2 0.2 0.2 0.2 0.2 0.2 0.2 0.2 0.2 0.2 0.2 0.2 0.2 0.2 0.2 0.2 0.2 0.2 0.2 0.2 0.2 0.2 0.2 0.2 0.2 0.2 0.2 0.2 0.2 0.2 0.2 0.2 0.2 0.2 0.2 0.2 0.2 0.2 0.2 0.2 0.2 0.6000000000000001 0.1 0.1 0.1 0.1 0.2 0.2 0.2 0.2 0.2 0.2 0.2 0.2 0.2 0.2 0.2 0.2 0.2 0.2 0.2 0.2 0.2 0.2 0.2 0.2 0.8399999999999999 0.03999999999999999 0.03999999999999999 0.03999999999999999 0.03999999999999999 0.02222222222222223 0.02222222222222223 0.9111111111111112 0.02222222222222223 0.02222222222222223 0.2 0.2 0.2 0.2 0.2 0.2 0.2 0.2 0.2 0.2 0.2 0.2 0.2 0.2 0.2 0.2 0.2 0.2 0.2 0.2 0.06666666666666665 0.06666666666666665 0.7333333333333333 0.06666666666666665 0.06666666666666665 0.03333333333333333 0.03333333333333333 0.8666666666666665 0.03333333333333333 0.03333333333333333 0.2 0.2 0.2 0.2 0.2 0.2 0.2 0.2 0.2 0.2 0.2 0.2 0.2 0.2 0.2 0.2 0.2 0.2 0.2 0.2 0.1 0.1 0.6000000000000001 0.1 0.1 0.2 0.2 0.2 0.2 0.2 0.2 0.2 0.2 0.2 0.2 0.1 0.1 0.1 0.1 0.6 0.007407407407407409 0.007407407407407409 0.6370370370370371 0.3037037037037037 0.04444444444444445 0.1 0.1 0.1 0.6000000000000001 0.1 0.06666666666666665 0.06666666666666665 0.7333333333333333 0.06666666666666665 0.06666666666666665 0.2 0.2 0.2 0.2 0.2 0.02857142857142857 0.02857142857142857 0.02857142857142857 0.02857142857142857 0.8857142857142857 0.004761904761904761 0.004761904761904761 0.8142857142857142 0.1238095238095238 0.05238095238095238 0.8399999999999999 0.03999999999999999 0.03999999999999999 0.03999999999999999 0.03999999999999999 0.01818181818181818 0.01818181818181818 0.4727272727272728 0.01818181818181818 0.4727272727272728 0.2 0.2 0.2 0.2 0.2 0.01666666666666667 0.01666666666666667 0.01666666666666667 0.01666666666666667 0.9333333333333332 0.0008130081300813009 0.1146341463414634 0.6430894308943089 0.2365853658536586 0.004878048780487805 0.7478260869565218 0.008695652173913045 0.1826086956521739 0.05217391304347826 0.008695652173913045 0.01428571428571429 0.01428571428571429 0.3714285714285714 0.01428571428571429 0.5857142857142856 0.2 0.2 0.2 0.2 0.2 0.05 0.05 0.05 0.05 0.8 0.01 0.11 0.7600000000000001 0.11 0.01 0.15 0.025 0.775 0.025 0.025 0.06666666666666667 0.06666666666666667 0.4 0.06666666666666667 0.4 0.2 0.2 0.2 0.2 0.2 0.03333333333333333 0.03333333333333333 0.03333333333333333 0.03333333333333333 0.8666666666666667 0.02857142857142857 0.02857142857142857 0.7428571428571429 0.1714285714285714 0.02857142857142857 0.02 0.02 0.9200000000000002 0.02 0.02 0.2 0.2 0.2 0.2 0.2 0.2 0.2 0.2 0.2 0.2 0.2 0.2 0.2 0.2 0.2 0.06666666666666665 0.06666666666666665 0.7333333333333333 0.06666666666666665 0.06666666666666665 0.2 0.2 0.2 0.2 0.2 0.2 0.2 0.2 0.2 0.2 0.2 0.2 0.2 0.2 0.2 0.2 0.2 0.2 0.2 0.2 0.02857142857142857 0.02857142857142857 0.8857142857142857 0.02857142857142857 0.02857142857142857 0.06666666666666665 0.06666666666666665 0.06666666666666665 0.7333333333333333 0.06666666666666665 0.2 0.2 0.2 0.2 0.2 0.2 0.2 0.2 0.2 0.2 0.2 0.2 0.2 0.2 0.2 0.005555555555555556 0.3111111111111111 0.6444444444444444 0.03333333333333333 0.005555555555555556 0.01818181818181818 0.01818181818181818 0.01818181818181818 0.9272727272727274 0.01818181818181818 0.2 0.2 0.2 0.2 0.2 0.2 0.2 0.2 0.2 0.2 0.2 0.2 0.2 0.2 0.2 0.03333333333333333 0.2 0.3666666666666666 0.3666666666666666 0.03333333333333333 0.01818181818181818 0.01818181818181818 0.01818181818181818 0.9272727272727274 0.01818181818181818 0.2 0.2 0.2 0.2 0.2 0.2 0.2 0.2 0.2 0.2 0.2 0.2 0.2 0.2 0.2 0.05 0.05 0.3 0.55 0.05 0.01818181818181818 0.01818181818181818 0.01818181818181818 0.9272727272727274 0.01818181818181818 0.2 0.2 0.2 0.2 0.2 0.2 0.2 0.2 0.2 0.2 0.2 0.2 0.2 0.2 0.2 0.2 0.2 0.2 0.2 0.2 0.2 0.2 0.2 0.2 0.2 0.2 0.2 0.2 0.2 0.2 0.2 0.2 0.2 0.2 0.2 0.2 0.2 0.2 0.2 0.2 0.2 0.2 0.2 0.2 0.2 0.2 0.2 0.2 0.2 0.2 0.2 0.2 0.2 0.2 0.2 0.025 0.025 0.9 0.025 0.025 0.2 0.2 0.2 0.2 0.2 0.05 0.05 0.8 0.05 0.05 0.2 0.2 0.2 0.2 0.2 0.05 0.05 0.8 0.05 0.05 0.1 0.1 0.6000000000000001 0.1 0.1 0.2 0.2 0.2 0.2 0.2 0.2 0.2 0.2 0.2 0.2 0.2 0.2 0.2 0.2 0.2 0.2 0.2 0.2 0.2 0.2 0.2 0.2 0.2 0.2 0.2 0.2 0.2 0.2 0.2 0.2 0.2 0.2 0.2 0.2 0.2 0.2 0.2 0.2 0.2 0.2 0.2 0.2 0.2 0.2 0.2 0.2 0.2 0.2 0.2 0.2 0.03999999999999999 0.03999999999999999 0.8399999999999999 0.03999999999999999 0.03999999999999999 0.2 0.2 0.2 0.2 0.2 0.2 0.2 0.2 0.2 0.2 0.2 0.2 0.2 0.2 0.2 0.2 0.2 0.2 0.2 0.2 0.1 0.1 0.6000000000000001 0.1 0.1 0.02222222222222223 0.02222222222222223 0.9111111111111112 0.02222222222222223 0.02222222222222223 0.2 0.2 0.2 0.2 0.2 0.2 0.2 0.2 0.2 0.2 0.2 0.2 0.2 0.2 0.2 0.03999999999999999 0.03999999999999999 0.8399999999999999 0.03999999999999999 0.03999999999999999 0.008333333333333335 0.008333333333333335 0.9666666666666668 0.008333333333333335 0.008333333333333335 0.2 0.2 0.2 0.2 0.2 0.2 0.2 0.2 0.2 0.2 0.2 0.2 0.2 0.2 0.2 0.06666666666666665 0.06666666666666665 0.7333333333333333 0.06666666666666665 0.06666666666666665 0.03999999999999999 0.03999999999999999 0.8399999999999999 0.03999999999999999 0.03999999999999999 0.2 0.2 0.2 0.2 0.2 0.2 0.2 0.2 0.2 0.2 0.2 0.2 0.2 0.2 0.2 0.2 0.2 0.2 0.2 0.2 0.1 0.1 0.6000000000000001 0.1 0.1 0.2 0.2 0.2 0.2 0.2 0.2 0.2 0.2 0.2 0.2 0.2 0.2 0.2 0.2 0.2 0.2 0.2 0.2 0.2 0.2 0.2 0.2 0.2 0.2 0.2 0.2 0.2 0.2 0.2 0.2 0.2 0.2 0.2 0.2 0.2 0.2 0.2 0.2 0.2 0.2 0.2 0.2 0.2 0.2 0.2 0.2 0.2 0.2 0.2 0.2 0.2 0.2 0.2 0.2 0.2 0.2 0.2 0.2 0.2 0.2 0.2 0.2 0.2 0.2 0.2 0.2 0.2 0.2 0.2 0.2 0.02222222222222223 0.02222222222222223 0.9111111111111112 0.02222222222222223 0.02222222222222223 0.2 0.2 0.2 0.2 0.2 0.2 0.2 0.2 0.2 0.2 0.2 0.2 0.2 0.2 0.2 0.2 0.2 0.2 0.2 0.2 0.2 0.2 0.2 0.2 0.2 0.1 0.1 0.6000000000000001 0.1 0.1 0.2 0.2 0.2 0.2 0.2 0.2 0.2 0.2 0.2 0.2 0.2 0.2 0.2 0.2 0.2 0.2 0.2 0.2 0.2 0.2 0.2 0.2 0.2 0.2 0.2 0.2 0.2 0.2 0.2 0.2 0.2 0.2 0.2 0.2 0.2 0.2 0.2 0.2 0.2 0.2 0.05 0.05 0.55 0.3 0.05 0.2 0.2 0.2 0.2 0.2 0.2 0.2 0.2 0.2 0.2 0.2 0.2 0.2 0.2 0.2 0.1 0.1 0.1 0.1 0.6 0.01666666666666667 0.01666666666666667 0.8500000000000001 0.1 0.01666666666666667 0.06666666666666665 0.06666666666666665 0.7333333333333333 0.06666666666666665 0.06666666666666665 0.06666666666666665 0.06666666666666665 0.7333333333333333 0.06666666666666665 0.06666666666666665 0.2 0.2 0.2 0.2 0.2 0.06666666666666667 0.06666666666666667 0.06666666666666667 0.06666666666666667 0.7333333333333334 0.003333333333333333 0.3699999999999999 0.6199999999999999 0.003333333333333333 0.003333333333333333 0.01538461538461539 0.01538461538461539 0.9384615384615385 0.01538461538461539 0.01538461538461539 0.01818181818181818 0.01818181818181818 0.9272727272727274 0.01818181818181818 0.01818181818181818 0.2 0.2 0.2 0.2 0.2 0.2 0.2 0.2 0.2 0.2 0.02857142857142857 0.3142857142857143 0.6 0.02857142857142857 0.02857142857142857 0.03333333333333333 0.03333333333333333 0.8666666666666665 0.03333333333333333 0.03333333333333333 0.03333333333333333 0.03333333333333333 0.6999999999999998 0.03333333333333333 0.2 0.2 0.2 0.2 0.2 0.2 0.2 0.2 0.2 0.2 0.2 0.1 0.1 0.6000000000000001 0.1 0.1 0.03999999999999999 0.03999999999999999 0.8399999999999999 0.03999999999999999 0.03999999999999999 0.05 0.05 0.8 0.05 0.05 0.2 0.2 0.2 0.2 0.2 0.2 0.2 0.2 0.2 0.2 0.2 0.2 0.2 0.2 0.2 0.2 0.2 0.2 0.2 0.2 0.2 0.2 0.2 0.2 0.2 0.2 0.2 0.2 0.2 0.2 0.2 0.2 0.2 0.2 0.2 0.2 0.2 0.2 0.2 0.2 0.2 0.2 0.2 0.2 0.2 0.2 0.2 0.2 0.2 0.2 0.2 0.2 0.2 0.2 0.2 0.2 0.2 0.2 0.2 0.2 0.2 0.2 0.2 0.2 0.2 0.2 0.2 0.2 0.2 0.2 0.05 0.05 0.8 0.05 0.05 0.2 0.2 0.2 0.2 0.2 0.2 0.2 0.2 0.2 0.2 0.03999999999999999 0.03999999999999999 0.03999999999999999 0.8399999999999999 0.03999999999999999 0.2 0.2 0.2 0.2 0.2 0.2 0.2 0.2 0.2 0.2 0.2 0.2 0.2 0.2 0.2 0.2 0.2 0.2 0.2 0.2 0.1 0.1 0.1 0.6000000000000001 0.1 0.2 0.2 0.2 0.2 0.2 0.2 0.2 0.2 0.2 0.2 0.2 0.2 0.2 0.2 0.2 0.2 0.2 0.2 0.2 0.2 0.2 0.2 0.2 0.2 0.2 0.2 0.2 0.2 0.2 0.2 0.2 0.2 0.2 0.2 0.2 0.2 0.2 0.2 0.2 0.2 0.2 0.2 0.2 0.2 0.2 0.2 0.2 0.2 0.2 0.2 0.2 0.2 0.2 0.2 0.2 0.2 0.2 0.2 0.2 0.2 0.2 0.2 0.2 0.2 0.2 0.2 0.2 0.2 0.2 0.2 0.03333333333333333 0.03333333333333333 0.8666666666666665 0.03333333333333333 0.03333333333333333 0.2 0.2 0.2 0.2 0.2 0.2 0.2 0.2 0.2 0.2 0.2 0.2 0.2 0.2 0.2 0.2 0.2 0.2 0.2 0.2 0.2 0.2 0.2 0.2 0.2 0.2 0.2 0.2 0.2 0.2 0.2 0.2 0.2 0.2 0.2 0.2 0.2 0.2 0.2 0.2 0.2 0.2 0.2 0.2 0.2 0.06666666666666665 0.06666666666666665 0.7333333333333333 0.06666666666666665 0.06666666666666665 0.2 0.2 0.2 0.2 0.2 0.2 0.2 0.2 0.2 0.2 0.2 0.2 0.2 0.2 0.2 0.2 0.2 0.2 0.2 0.2 0.2 0.2 0.2 0.2 0.2 0.2 0.2 0.2 0.2 0.2 0.2 0.2 0.2 0.2 0.2 0.2 0.2 0.2 0.2 0.2 0.2 0.2 0.2 0.2 0.2 0.2 0.2 0.2 0.2 0.2 0.2 0.2 0.2 0.2 0.2 0.2 0.2 0.2 0.2 0.2 0.2 0.2 0.2 0.2 0.2 0.2 0.2 0.2 0.2 0.2 0.2 0.2 0.2 0.2 0.2 0.2 0.2 0.2 0.2 0.2 0.2 0.2 0.2 0.2 0.2 0.2 0.2 0.2 0.2 0.2 0.2 0.2 0.2 0.2 0.2 0.2 0.2 0.2 0.2 0.2 0.2 0.2 0.2 0.2 0.2 0.2 0.2 0.2 0.2 0.2 0.2 0.2 0.2 0.2 0.2 0.2 0.2 0.2 0.2 0.2 0.2 0.2 0.2 0.2 0.2 0.2 0.2 0.2 0.2 0.2 0.2 0.2 0.2 0.2 0.2 0.2 0.2 0.2 0.2 0.2 0.2 0.2 0.2 0.2 0.2 0.2 0.2 0.2 0.2 0.2 0.2 0.2 0.2 0.2 0.2 0.2 0.2 0.2 0.2 0.2 0.2 0.2 0.2 0.2 0.2 0.2 0.2 0.2 0.2 0.2 0.2 0.2 0.2 0.2 0.2 0.2 0.2 0.2 0.2 0.2 0.2 0.2 0.2 0.2 0.2 0.2 0.2 0.2 0.2 0.2 0.2 0.2 0.2 0.2 0.2 0.2 0.2 0.2 0.2 0.2 0.05 0.05 0.8 0.05 0.05 0.2 0.2 0.2 0.2 0.2 0.2 0.2 0.2 0.2 0.2 0.2 0.2 0.2 0.2 0.2 0.2 0.2 0.2 0.2 0.2 0.02 0.02 0.9200000000000002 0.02 0.02 0.2 0.2 0.2 0.2 0.2 0.2 0.2 0.2 0.2 0.2 0.2 0.2 0.2 0.2 0.2 0.2 0.2 0.2 0.2 0.2 0.2 0.2 0.2 0.2 0.2 0.2 0.2 0.2 0.2 0.2 0.2 0.2 0.2 0.2 0.2 0.2 0.2 0.2 0.2 0.2 0.2 0.2 0.2 0.2 0.2 0.2 0.2 0.2 0.2 0.2 0.2 0.2 0.2 0.2 0.2 0.2 0.2 0.2 0.2 0.2 0.2 0.2 0.2 0.2 0.2 0.2 0.2 0.2 0.2 0.2 0.2 0.2 0.2 0.2 0.2 0.2 0.2 0.2 0.2 0.2 0.2 0.2 0.2 0.2 0.2 0.2 0.2 0.2 0.2 0.2 0.2 0.2 0.2 0.2 0.2 0.2 0.2 0.2 0.2 0.2 0.1 0.1 0.6000000000000001 0.1 0.1 0.2 0.2 0.2 0.2 0.2 0.2 0.2 0.2 0.2 0.2 0.2 0.2 0.2 0.2 0.2 0.2 0.2 0.2 0.2 0.2 0.1 0.1 0.6000000000000001 0.1 0.1 0.2 0.2 0.2 0.2 0.2 0.2 0.2 0.2 0.2 0.2 0.2 0.2 0.2 0.2 0.2 0.2 0.2 0.2 0.2 0.2 0.2 0.2 0.2 0.2 0.2 0.2 0.2 0.2 0.2 0.2 0.2 0.2 0.2 0.2 0.2 0.2 0.2 0.2 0.2 0.2 0.2 0.2 0.2 0.2 0.2 0.2 0.2 0.2 0.2 0.2 0.2 0.2 0.2 0.2 0.2 0.2 0.2 0.2 0.2 0.2 0.2 0.2 0.2 0.2 0.2 0.2 0.2 0.2 0.2 0.2 0.2 0.2 0.2 0.2 0.2 0.2 0.2 0.2 0.2 0.2 0.2 0.2 0.2 0.2 0.2 0.1 0.1 0.6000000000000001 0.1 0.1 0.2 0.2 0.2 0.2 0.2 0.2 0.2 0.2 0.2 0.2 0.2 0.2 0.2 0.2 0.2 0.2 0.2 0.2 0.2 0.2 0.2 0.2 0.2 0.2 0.2 0.2 0.2 0.2 0.2 0.2 0.2 0.2 0.2 0.2 0.2 0.2 0.2 0.2 0.2 0.2 0.2 0.2 0.2 0.2 0.2 0.2 0.2 0.2 0.2 0.2 0.2 0.2 0.2 0.2 0.2 0.2 0.2 0.2 0.2 0.2 0.2 0.2 0.2 0.2 0.2 0.2 0.2 0.2 0.2 0.2 0.2 0.2 0.2 0.2 0.2 0.2 0.2 0.2 0.2 0.2 0.2 0.2 0.2 0.2 0.2 0.2 0.2 0.2 0.2 0.2 0.2 0.2 0.2 0.2 0.2 0.2 0.2 0.2 0.2 0.2 0.2 0.2 0.2 0.2 0.2 0.2 0.2 0.2 0.2 0.2 0.2 0.2 0.2 0.2 0.2 0.2 0.2 0.2 0.2 0.2 0.2 0.2 0.2 0.2 0.2 0.2 0.2 0.2 0.2 0.2 0.2 0.2 0.2 0.2 0.2 0.2 0.2 0.2 0.2 0.2 0.2 0.2 0.2 0.2 0.2 0.2 0.2 0.2 0.2 0.2 0.2 0.2 0.2 0.2 0.2 0.2 0.2 0.2 0.2 0.2 0.2 0.2 0.2 0.2 0.2 0.2 0.2 0.2 0.2 0.2 0.2 0.2 0.2 0.2 0.2 0.2 0.2 0.2 0.2 0.2 0.2 0.2 0.2 0.2 0.2 0.2 0.2 0.2 0.2 0.2 0.2 0.2 0.2 0.2 0.2 0.2 0.2 0.2 0.2 0.2 0.2 0.2 0.2 0.2 0.2 0.2 0.2 0.2 0.2 0.2 0.2 0.2 0.2 0.2 0.2 0.2 0.2 0.2 0.2 0.2 0.2 0.2 0.2 0.2 0.2 0.2 0.2 0.2 0.2 0.2 0.2 0.2 0.2 0.2 0.2 0.2 0.2 0.2 0.2 0.2 0.2 0.2 0.2 0.2 0.2 0.2 0.2 0.2 0.2 0.2 0.2 0.2 0.2 0.2 0.2 0.2 0.2 0.2 0.2 0.2 0.2 0.2 0.2 0.2 0.2 0.2 0.2 0.2 0.2 0.2 0.2 0.2 0.2 0.2 0.2 0.2 0.2 0.2 0.2 0.2 0.2 0.2 0.2 0.2 0.2 0.2 0.2 0.2 0.2 0.2 0.2 0.2 0.2 0.2 0.2 0.2 0.2 0.2 0.2 0.2 0.2 0.2 0.2 0.2 0.2 0.2 0.2 0.2 0.2 0.2 0.2 0.2 0.2 0.2 0.2 0.2 0.2 0.2 0.2 0.2 0.2 0.2 0.2 0.2 0.2 0.2 0.2 0.2 0.2 0.2 0.2 0.2 0.2 0.2 0.2 0.2 0.2 0.2 0.2 0.2 0.2 0.2 0.2 0.2 0.2 0.2 0.2 0.2 0.2 0.2 0.2 0.2 0.2 0.2 0.2 0.2 0.2 0.2 0.2 0.2 0.2 0.2 0.2 0.2 0.2 0.2 0.2 0.2 0.2 0.2 0.2 0.2 0.2 0.2 0.2 0.2 0.2 0.2 0.2 0.2 0.2 0.2 0.2 0.2 0.2 0.2 0.2 0.2 0.2 0.2 0.2 0.2 0.2 0.2 0.2 0.2 0.2 0.2 0.2 0.2 0.2 0.2 0.2 0.2 0.2 0.2 0.2 0.2 0.2 0.2 0.2 0.2 0.2 0.2 0.2 0.2 0.2 0.2 0.2 0.2 0.2 0.2 0.2 0.2 0.2 0.2 0.2 0.2 0.2 0.2 0.2 0.2 0.2 0.2 0.2 0.2 0.2 0.2 0.2 0.2 0.2 0.2 0.2 0.2 0.2 0.2 0.2 0.2 0.2 0.2 0.2 0.2 0.2 0.2 0.2 0.2 0.2 0.2 0.2 0.2 0.2 0.2 0.2 0.2 0.2 0.2 0.2 0.2 0.2 0.2 0.2 0.2 0.2 0.2 0.2 0.2 0.2 0.2 0.2 0.2 0.2 0.2 0.2 0.2 0.2 0.2 0.2 0.2 0.2 0.2 0.2 0.2 0.2 0.2 0.2 0.2 0.2 0.2 0.2 0.2 0.2 0.2 0.2 0.2 0.2 0.2 0.2 0.2 0.2 0.2 0.2 0.2 0.2 0.2 0.2 0.2 0.2 0.2 0.2 0.2 0.2 0.2 0.2 0.2 0.2 0.2 0.2 0.2 0.2 0.2 0.06666666666666665 0.06666666666666665 0.7333333333333333 0.06666666666666665 0.06666666666666665 0.2 0.2 0.2 0.2 0.2 0.2 0.2 0.2 0.2 0.2 0.2 0.2 0.2 0.2 0.2 0.2 0.2 0.2 0.2 0.2 0.2 0.2 0.2 0.2 0.2 0.2 0.2 0.2 0.2 0.2 0.2 0.2 0.2 0.2 0.2 0.2 0.2 0.2 0.2 0.2 0.2 0.2 0.2 0.2 0.2 0.2 0.2 0.2 0.2 0.2 0.2 0.2 0.2 0.2 0.2 0.2 0.2 0.2 0.2 0.2 0.2 0.2 0.2 0.2 0.2 0.2 0.2 0.2 0.2 0.2 0.2 0.2 0.2 0.2 0.2 0.2 0.2 0.2 0.2 0.2 0.2 0.2 0.2 0.2 0.2 0.2 0.2 0.2 0.2 0.2 0.2 0.2 0.2 0.2 0.2 0.2 0.2 0.2 0.2 0.2 0.2 0.2 0.2 0.2 0.2 0.2 0.2 0.2 0.2 0.2 0.2 0.2 0.2 0.2 0.2 0.2 0.2 0.2 0.2 0.2 0.2 0.2 0.2 0.2 0.2 0.2 0.2 0.2 0.2 0.2 0.2 0.2 0.2 0.2 0.2 0.2 0.2 0.2 0.2 0.2 0.2 0.2 0.2 0.2 0.2 0.2 0.2 0.2 0.2 0.2 0.2 0.2 0.2 0.2 0.2 0.2 0.2 0.2 0.2 0.2 0.2 0.2 0.2 0.2 0.2 0.2 0.2 0.2 0.2 0.2 0.2 0.2 0.2 0.2 0.2 0.2 0.2 0.2 0.2 0.2 0.2 0.2 0.2 0.2 0.2 0.2 0.2 0.2 0.2 0.2 0.2 0.2 0.2 0.2 0.2 0.2 0.2 0.2 0.2 0.2 0.2 0.2 0.2 0.2 0.2 0.2 0.2 0.2 0.2 0.2 0.2 0.2 0.2 0.2 0.2 0.2 0.2 0.2 0.2 0.2 0.2 0.2 0.2 0.2 0.2 0.2 0.2 0.2 0.2 0.2 0.2 0.2 0.2 0.2 0.2 0.2 0.2 0.2 0.2 0.2 0.2 0.2 0.2 0.2 0.2 0.2 0.2 0.2 0.2 0.2 0.2 0.2 0.2 0.2 0.2 0.2 0.2 0.2 0.2 0.2 0.2 0.2 0.2 0.2 0.2 0.2 0.2 0.2 0.2 0.2 0.2 0.2 0.2 0.2 0.2 0.2 0.2 0.2 0.2 0.2 0.2 0.2 0.2 0.2 0.2 0.2 0.2 0.2 0.2 0.2 0.2 0.2 0.2 0.2 0.2 0.2 0.2 0.2 0.2 0.2 0.2 0.2 0.2 0.2 0.2 0.2 0.2 0.2 0.2 0.2 0.2 0.2 0.2 0.2 0.2 0.2 0.2 0.2 0.2 0.2 0.2 0.2 0.2 0.2 0.2 0.2 0.2 0.2 0.2 0.2 0.2 0.2 0.2 0.2 0.2 0.2 0.2 0.2 0.2 0.2 0.2 0.2 0.2 0.2 0.2 0.2 0.2 0.2 0.2 0.2 0.2 0.2 0.2 0.2 0.2 0.2 0.2 0.2 0.2 0.2 0.2 0.2 0.2 0.2 0.2 0.2 0.2 0.2 0.2 0.2 0.2 0.2 0.2 0.2 0.2 0.2 0.2 0.2 0.2 0.2 0.2 0.2 0.2 0.2 0.2 0.2 0.2 0.2 0.2 0.2 0.2 0.2 0.2 0.2 0.2 0.2 0.2 0.2 0.2 0.2 0.2 0.2 0.2 0.2 0.2 0.2 0.2 0.2 0.2 0.2 0.2 0.2 0.2 0.2 0.2 0.2 0.2 0.2 0.2 0.2 0.2 0.2 0.2 0.2 0.2 0.2 0.2 0.2 0.2 0.2 0.2 0.2 0.2 0.2 0.2 0.2 0.2 0.2 0.2 0.2 0.2 0.2 0.2 0.2 0.2 0.2 0.2 0.2 0.2 0.2 0.2 0.2 0.2 0.2 0.2 0.2 0.2 0.2 0.2 0.2 0.2 0.2 0.2 0.2 0.2 0.2 0.2 0.2 0.2 0.2 0.2 0.2 0.2 0.2 0.2 0.2 0.2 0.2 0.2 0.2 0.2 0.2 0.2 0.2 0.2 0.2 0.2 0.2 0.2 0.2 0.025 0.025 0.9 0.025 0.025 0.2 0.2 0.2 0.2 0.2 0.2 0.2 0.2 0.2 0.2 0.2 0.2 0.2 0.2 0.2 0.2 0.2 0.2 0.2 0.2 0.2 0.2 0.2 0.2 0.2 0.2 0.2 0.2 0.2 0.2 0.2 0.2 0.2 0.2 0.2 0.2 0.2 0.2 0.2 0.2 0.2 0.2 0.2 0.2 0.2 0.2 0.2 0.2 0.2 0.2 0.2 0.2 0.2 0.2 0.2 0.2 0.2 0.2 0.2 0.2 0.2 0.2 0.2 0.2 0.2 0.2 0.2 0.2 0.2 0.2 0.2 0.2 0.2 0.2 0.2 0.2 0.2 0.2 0.2 0.2 0.2 0.2 0.2 0.2 0.2 0.01818181818181818 0.01818181818181818 0.9272727272727274 0.01818181818181818 0.01818181818181818 0.2 0.2 0.2 0.2 0.2 0.2 0.2 0.2 0.2 0.2 0.0125 0.0125 0.9500000000000002 0.0125 0.0125 0.2 0.2 0.2 0.2 0.2 0.03333333333333333 0.03333333333333333 0.8666666666666665 0.03333333333333333 0.03333333333333333 0.2 0.2 0.2 0.2 0.2 0.01111111111111111 0.01111111111111111 0.9555555555555557 0.01111111111111111 0.01111111111111111 0.01818181818181818 0.01818181818181818 0.9272727272727274 0.01818181818181818 0.01818181818181818 0.2 0.2 0.2 0.2 0.2 0.1 0.1 0.6000000000000001 0.1 0.1 0.2 0.2 0.2 0.2 0.2 0.03999999999999999 0.03999999999999999 0.8399999999999999 0.03999999999999999 0.03999999999999999 0.06666666666666665 0.06666666666666665 0.7333333333333333 0.06666666666666665 0.06666666666666665 0.2 0.2 0.2 0.2 0.2 0.2 0.2 0.2 0.2 0.2 0.2 0.2 0.2 0.2 0.2 0.2 0.2 0.2 0.2 0.2 0.2 0.2 0.2 0.2 0.2 0.2 0.2 0.2 0.2 0.2 0.2 0.2 0.2 0.2 0.2 0.05 0.05 0.8 0.05 0.05 0.2 0.2 0.2 0.2 0.2 0.2 0.2 0.2 0.2 0.2 0.2 0.2 0.2 0.2 0.2 0.2 0.2 0.2 0.2 0.2 0.008333333333333335 0.008333333333333335 0.55 0.425 0.008333333333333335 0.2 0.2 0.2 0.2 0.2 0.2 0.2 0.2 0.2 0.2 0.2 0.2 0.2 0.2 0.2 0.2 0.2 0.2 0.2 0.2 0.025 0.025 0.65 0.275 0.025 0.2 0.2 0.2 0.2 0.2 0.8 0.05 0.05 0.05 0.05 0.2 0.2 0.2 0.2 0.2 0.2 0.2 0.2 0.2 0.2 0.02857142857142857 0.02857142857142857 0.8857142857142857 0.02857142857142857 0.02857142857142857 0.2 0.2 0.2 0.2 0.2 0.2 0.2 0.2 0.2 0.2 0.2 0.2 0.2 0.2 0.2 0.2 0.2 0.2 0.2 0.2 0.2 0.2 0.2 0.2 0.2 0.2 0.2 0.2 0.2 0.2 0.2 0.2 0.2 0.2 0.2 0.2 0.2 0.2 0.2 0.2 0.2 0.2 0.2 0.2 0.2 0.2 0.2 0.2 0.2 0.2 0.2 0.2 0.2 0.2 0.2 0.2 0.2 0.2 0.2 0.2 0.2 0.2 0.2 0.2 0.2 0.2 0.2 0.2 0.2 0.2 0.2 0.2 0.2 0.2 0.2 0.2 0.2 0.2 0.2 0.2 0.2 0.2 0.2 0.2 0.2 0.2 0.2 0.2 0.2 0.2 0.2 0.2 0.2 0.2 0.2 0.2 0.2 0.2 0.2 0.2 0.2 0.2 0.2 0.2 0.2 0.2 0.2 0.2 0.2 0.2 0.2 0.2 0.2 0.2 0.2 0.2 0.2 0.2 0.2 0.2 0.2 0.2 0.2 0.2 0.2 0.2 0.2 0.2 0.2 0.2 0.2 0.2 0.2 0.2 0.2 0.2 0.2 0.2 0.2 0.2 0.2 0.2 0.2 0.2 0.2 0.2 0.2 0.2 0.2 0.2 0.2 0.2 0.2 0.2 0.2 0.2 0.2 0.2 0.2 0.2 0.2 0.2 0.2 0.2 0.2 0.2 0.2 0.2 0.2 0.2 0.2 0.2 0.2 0.2 0.2 0.2 0.2 0.2 0.2 0.2 0.2 0.2 0.2 0.2 0.2 0.2 0.2 0.2 0.2 0.2 0.2 0.2 0.2 0.2 0.2 0.2 0.2 0.2 0.2 0.2 0.2 0.2 0.2 0.2 0.2 0.2 0.2 0.2 0.2 0.2 0.2 0.2 0.2 0.2 0.2 0.2 0.2 0.2 0.2 0.2 0.2 0.2 0.2 0.2 0.2 0.2 0.2 0.2 0.2 0.2 0.2 0.2 0.2 0.2 0.2 0.2 0.2 0.2 0.2 0.2 0.2 0.2 0.2 0.2 0.2 0.2 0.2 0.2 0.2 0.2 0.2 0.2 0.2 0.2 0.2 0.2 0.2 0.2 0.2 0.2 0.2 0.2 0.2 0.2 0.2 0.2 0.2 0.2 0.2 0.2 0.2 0.2 0.2 0.2 0.2 0.2 0.2 0.2 0.2 0.2 0.2 0.2 0.2 0.2 0.2 0.2 0.2 0.2 0.2 0.2 0.2 0.2 0.2 0.2 0.2 0.2 0.2 0.2 0.2 0.2 0.2 0.2 0.2 0.2 0.2 0.2 0.2 0.2 0.2 0.2 0.2 0.2 0.2 0.2 0.2 0.2 0.2 0.2 0.2 0.2 0.2 0.2 0.2 0.2 0.2 0.2 0.2 0.2 0.2 0.2 0.2 0.2 0.2 0.2 0.2 0.2 0.2 0.2 0.2 0.2 0.2 0.2 0.2 0.2 0.2 0.2 0.2 0.2 0.2 0.2 0.2 0.2 0.2 0.2 0.2 0.2 0.2 0.2 0.2 0.2 0.2 0.2 0.2 0.2 0.2 0.2 0.2 0.2 0.2 0.2 0.2 0.2 0.2 0.2 0.2 0.2 0.2 0.2 0.2 0.2 0.2 0.2 0.2 0.2 0.2 0.2 0.2 0.2 0.2 0.2 0.2 0.2 0.2 0.2 0.2 0.2 0.2 0.2 0.2 0.2 0.2 0.2 0.2 0.2 0.2 0.2 0.2 0.2 0.2 0.2 0.2 0.2 0.2 0.2 0.2 0.2 0.2 0.2 0.2 0.2 0.2 0.2 0.2 0.2 0.2 0.2 0.2 0.2 0.2 0.2 0.2 0.2 0.2 0.2 0.2 0.2 0.2 0.2 0.2 0.2 0.01818181818181818 0.01818181818181818 0.9272727272727274 0.01818181818181818 0.01818181818181818 0.2 0.2 0.2 0.2 0.2 0.2 0.2 0.2 0.2 0.2 0.2 0.2 0.2 0.2 0.2 0.2 0.2 0.2 0.2 0.2 0.06666666666666665 0.06666666666666665 0.7333333333333333 0.06666666666666665 0.06666666666666665 0.2 0.2 0.2 0.2 0.2 0.2 0.2 0.2 0.2 0.2 0.1 0.1 0.6000000000000001 0.1 0.1 0.2 0.2 0.2 0.2 0.2 0.2 0.2 0.2 0.2 0.2 0.2 0.2 0.2 0.2 0.2 0.2 0.2 0.2 0.2 0.2 0.1 0.1 0.6000000000000001 0.1 0.1 0.2 0.2 0.2 0.2 0.2 0.2 0.2 0.2 0.2 0.2 0.2 0.2 0.2 0.2 0.2 0.2 0.2 0.2 0.2 0.2 0.2 0.2 0.2 0.2 0.2 0.2 0.2 0.2 0.2 0.2 0.2 0.2 0.2 0.2 0.2 0.2 0.2 0.2 0.2 0.2 0.2 0.2 0.2 0.2 0.2 0.2 0.2 0.2 0.2 0.2 0.2 0.2 0.2 0.2 0.2 0.2 0.2 0.2 0.2 0.2 0.2 0.2 0.2 0.2 0.2 0.2 0.2 0.2 0.2 0.2 0.2 0.2 0.2 0.2 0.2 0.2 0.2 0.2 0.2 0.2 0.2 0.2 0.2 0.2 0.2 0.03999999999999999 0.03999999999999999 0.8399999999999999 0.03999999999999999 0.03999999999999999 0.1 0.1 0.1 0.6000000000000001 0.1 0.2 0.2 0.2 0.2 0.2 0.2 0.2 0.2 0.2 0.2 0.2 0.2 0.2 0.2 0.2 0.025 0.025 0.9 0.025 0.025 0.05 0.05 0.05 0.8 0.05 0.2 0.2 0.2 0.2 0.2 0.2 0.2 0.2 0.2 0.2 0.2 0.2 0.2 0.2 0.2 0.2 0.2 0.2 0.2 0.2 0.2 0.2 0.2 0.2 0.2 0.2 0.2 0.2 0.2 0.2 0.2 0.2 0.2 0.2 0.2 0.2 0.2 0.2 0.2 0.2 0.2 0.2 0.2 0.2 0.2 0.2 0.2 0.2 0.2 0.2 0.2 0.2 0.2 0.2 0.2 0.2 0.2 0.2 0.2 0.2 0.2 0.2 0.2 0.2 0.2 0.2 0.2 0.2 0.2 0.2 0.2 0.2 0.2 0.2 0.2 0.2 0.2 0.2 0.2 0.2 0.2 0.2 0.2 0.2 0.2 0.2 0.2 0.2 0.2 0.2 0.2 0.2 0.2 0.2 0.2 0.2 0.2 0.2 0.2 0.2 0.2 0.2 0.2 0.2 0.2 0.2 0.2 0.2 0.2 0.2 0.2 0.2 0.2 0.2 0.2 0.2 0.2 0.2 0.2 0.2 0.2 0.2 0.2 0.2 0.2 0.2 0.2 0.2 0.2 0.2 0.2 0.2 0.2 0.2 0.2 0.2 0.2 0.2 0.2 0.2 0.2 0.2 0.2 0.2 0.2 0.2 0.2 0.2 0.2 0.2 0.2 0.2 0.2 0.2 0.2 0.2 0.2 0.2 0.2 0.2 0.2 0.2 0.2 0.2 0.2 0.2 0.2 0.2 0.2 0.2 0.2 0.2 0.2 0.2 0.2 0.2 0.2 0.2 0.2 0.2 0.2 0.2 0.2 0.2 0.2 0.2 0.2 0.2 0.2 0.2 0.2 0.2 0.2 0.2 0.2 0.2 0.2 0.2 0.2 0.2 0.2 0.2 0.2 0.2 0.2 0.2 0.2 0.2 0.2 0.2 0.2 0.2 0.2 0.2 0.2 0.2 0.2 0.2 0.2 0.2 0.2 0.2 0.2 0.2 0.2 0.2 0.2 0.2 0.2 0.2 0.2 0.2 0.2 0.2 0.2 0.2 0.2 0.2 0.2 0.2 0.2 0.2 0.2 0.2 0.2 0.2 0.2 0.2 0.2 0.2 0.2 0.2 0.2 0.2 0.2 0.2 0.2 0.2 0.2 0.2 0.2 0.2 0.2 0.2 0.2 0.2 0.2 0.2 0.2 0.2 0.2 0.2 0.2 0.2 0.2 0.2 0.2 0.2 0.2 0.2 0.2 0.2 0.2 0.2 0.2 0.2 0.2 0.2 0.2 0.2 0.2 0.2 0.2 0.2 0.2 0.2 0.2 0.2 0.2 0.2 0.2 0.2 0.2 0.2 0.2 0.2 0.2 0.2 0.2 0.2 0.2 0.2 0.2 0.2 0.2 0.2 0.2 0.2 0.2 0.2 0.2 0.2 0.2 0.2 0.2 0.2 0.2 0.2 0.2 0.2 0.2 0.2 0.2 0.2 0.2 0.2 0.2 0.2 0.2 0.2 0.2 0.2 0.2 0.2 0.2 0.2 0.2 0.2 0.2 0.2 0.2 0.2 0.2 0.2 0.2 0.2 0.2 0.2 0.2 0.2 0.2 0.2 0.2 0.2 0.2 0.2 0.2 0.2 0.2 0.2 0.2 0.2 0.2 0.2 0.2 0.2 0.2 0.2 0.2 0.2 0.2 0.2 0.2 0.2 0.2 0.2 0.2 0.2 0.2 0.2 0.2 0.2 0.2 0.2 0.2 0.2 0.2 0.2 0.2 0.2 0.2 0.2 0.2 0.2 0.2 0.2 0.2 0.2 0.2 0.2 0.2 0.2 0.2 0.2 0.2 0.2 0.2 0.2 0.2 0.2 0.2 0.2 0.2 0.2 0.2 0.2 0.2 0.2 0.2 0.2 0.2 0.2 0.2 0.2 0.2 0.2 0.2 0.2 0.2 0.2 0.2 0.2 0.2 0.2 0.2 0.2 0.2 0.2 0.2 0.2 0.2 0.2 0.2 0.2 0.2 0.2 0.2 0.2 0.2 0.2 0.2 0.2 0.2 0.2 0.2 0.2 0.2 0.2 0.2 0.2 0.2 0.2 0.2 0.2 0.2 0.2 0.2 0.2 0.2 0.2 0.2 0.2 0.2 0.2 0.2 0.2 0.2 0.2 0.2 0.2 0.2 0.2 0.2 0.2 0.2 0.2 0.2 0.2 0.2 0.2 0.2 0.2 0.2 0.2 0.2 0.2 0.2 0.2 0.2 0.2 0.2 0.2 0.2 0.2 0.2 0.2 0.2 0.2 0.2 0.2 0.2 0.2 0.2 0.2 0.2 0.2 0.2 0.2 0.2 0.2 0.2 0.2 0.2 0.2 0.2 0.2 0.2 0.2 0.2 0.2 0.2 0.2 0.2 0.2 0.2 0.2 0.2 0.2 0.2 0.2 0.2 0.2 0.2 0.2 0.2 0.2 0.2 0.2 0.2 0.2 0.2 0.2 0.2 0.2 0.2 0.2 0.2 0.2 0.2 0.2 0.2 0.2 0.2 0.2 0.2 0.2 0.2 0.2 0.2 0.2 0.2 0.2 0.2 0.2 0.2 0.2 0.2 0.2 0.2 0.2 0.2 0.2 0.2 0.2 0.2 0.2 0.2 0.2 0.2 0.2 0.2 0.2 0.2 0.2 0.2 0.2 0.2 0.2 0.2 0.2 0.2 0.2 0.2 0.2 0.2 0.1 0.1 0.6000000000000001 0.1 0.1 0.2 0.2 0.2 0.2 0.2 0.2 0.2 0.2 0.2 0.2 0.2 0.2 0.2 0.2 0.2 0.2 0.2 0.2 0.2 0.2 0.2 0.2 0.2 0.2 0.2 0.2 0.2 0.2 0.2 0.2 0.2 0.2 0.2 0.2 0.2 0.2 0.2 0.2 0.2 0.2 0.2 0.2 0.2 0.2 0.2 0.2 0.2 0.2 0.2 0.2 0.2 0.2 0.2 0.2 0.2 0.2 0.2 0.2 0.2 0.2 0.2 0.2 0.2 0.2 0.2 0.2 0.2 0.2 0.2 0.2 0.2 0.2 0.2 0.2 0.2 0.2 0.2 0.2 0.2 0.2 0.2 0.2 0.2 0.2 0.2 0.2 0.2 0.2 0.2 0.2 0.2 0.2 0.2 0.2 0.2 0.2 0.2 0.2 0.2 0.2 0.2 0.2 0.2 0.2 0.2 0.2 0.2 0.2 0.2 0.2 0.2 0.2 0.2 0.2 0.2 0.2 0.2 0.2 0.2 0.2 0.2 0.2 0.2 0.2 0.2 0.2 0.2 0.2 0.2 0.2 0.2 0.2 0.2 0.2 0.2</probabilities>
		</cpt>
	</nodes>
	<extensions>
		<genie version="1.0" app="SMILE 2.3.2@e971faba194e " name="Unnamed">
			<node id="eruptions">
				<name>eruptions</name>
				<interior color="e5f6f7" />
				<outline color="0000bb" />
				<font color="000000" name="MS Sans Serif" size="8" />
				<position>400 200 485 255</position>
			</node>
			<node id="Eqr">
				<name>Eqr</name>
				<interior color="e5f6f7" />
				<outline color="0000bb" />
				<font color="000000" name="MS Sans Serif" size="8" />
				<position>300 373 385 428</position>
			</node>
			<node id="CO2">
				<name>CO2</name>
				<interior color="e5f6f7" />
				<outline color="0000bb" />
				<font color="000000" name="MS Sans Serif" size="8" />
				<position>100 373 185 428</position>
			</node>
			<node id="RSAM">
				<name>RSAM</name>
				<interior color="e5f6f7" />
				<outline color="0000bb" />
				<font color="000000" name="MS Sans Serif" size="8" />
				<position>0 200 85 255</position>
			</node>
			<node id="SO2">
				<name>SO2</name>
				<interior color="e5f6f7" />
				<outline color="0000bb" />
				<font color="000000" name="MS Sans Serif" size="8" />
				<position>99 26 184 81</position>
			</node>
			<node id="H2S">
				<name>H2S</name>
				<interior color="e5f6f7" />
				<outline color="0000bb" />
				<font color="000000" name="MS Sans Serif" size="8" />
				<position>300 26 385 81</position>
			</node>
		</genie>
	</extensions>
</smile>
